<?xml version="1.0"?>
<opencv_storage>
<!-- Created using Computer Vision Toolbox(tm) for MATLAB(R) -->
<!-- Version 9.13.0.2105380 (R2022b) Update 2 -->
<!-- Compatible with OpenCV 4.5 -->
<cascade>
  <stageType>BOOST</stageType>
  <featureType>HOG</featureType>
  <height>32</height>
  <width>56</width>
  <stageParams>
    <boostType>GAB</boostType>
    <minHitRate>9.9500000476837158e-01</minHitRate>
    <maxFalseAlarm>9.9999997764825821e-03</maxFalseAlarm>
    <weightTrimRate>9.4999999999999996e-01</weightTrimRate>
    <maxDepth>1</maxDepth>
    <maxWeakCount>100</maxWeakCount></stageParams>
  <featureParams>
    <maxCatCount>0</maxCatCount>
    <featSize>36</featSize></featureParams>
  <stageNum>3</stageNum>
  <stages>
    <!-- stage 0 -->
    <_>
      <maxWeakCount>5</maxWeakCount>
      <stageThreshold>6.9985216856002808e-01</stageThreshold>
      <weakClassifiers>
        <_>
          <internalNodes>
            0 -1 23 4.7485902905464172e-02</internalNodes>
          <leafValues>
            -9.5811516046524048e-01 8.6000001430511475e-01</leafValues></_>
        <_>
          <internalNodes>
            0 -1 21 3.7258200347423553e-02</internalNodes>
          <leafValues>
            -9.3367528915405273e-01 9.2128890752792358e-01</leafValues></_>
        <_>
          <internalNodes>
            0 -1 0 5.1134668290615082e-02</internalNodes>
          <leafValues>
            -8.6628389358520508e-01 8.0219447612762451e-01</leafValues></_>
        <_>
          <internalNodes>
            0 -1 13 4.7706902027130127e-02</internalNodes>
          <leafValues>
            -8.5622948408126831e-01 8.7242519855499268e-01</leafValues></_>
        <_>
          <internalNodes>
            0 -1 19 1.6615685075521469e-02</internalNodes>
          <leafValues>
            7.9071342945098877e-01 -9.2992734909057617e-01</leafValues></_></weakClassifiers></_>
    <!-- stage 1 -->
    <_>
      <maxWeakCount>7</maxWeakCount>
      <stageThreshold>3.2578411698341370e-01</stageThreshold>
      <weakClassifiers>
        <_>
          <internalNodes>
            0 -1 12 6.1052255332469940e-02</internalNodes>
          <leafValues>
            -8.3168315887451172e-01 7.9775279760360718e-01</leafValues></_>
        <_>
          <internalNodes>
            0 -1 9 4.4178374111652374e-02</internalNodes>
          <leafValues>
            -8.5429126024246216e-01 6.6021633148193359e-01</leafValues></_>
        <_>
          <internalNodes>
            0 -1 6 3.3572901040315628e-02</internalNodes>
          <leafValues>
            -5.2691078186035156e-01 8.8516134023666382e-01</leafValues></_>
        <_>
          <internalNodes>
            0 -1 18 1.2765878811478615e-02</internalNodes>
          <leafValues>
            4.5595270395278931e-01 -9.0096837282180786e-01</leafValues></_>
        <_>
          <internalNodes>
            0 -1 4 5.7214032858610153e-03</internalNodes>
          <leafValues>
            -9.7119230031967163e-01 4.1399234533309937e-01</leafValues></_>
        <_>
          <internalNodes>
            0 -1 16 5.4502181708812714e-02</internalNodes>
          <leafValues>
            -5.1027137041091919e-01 8.5134756565093994e-01</leafValues></_>
        <_>
          <internalNodes>
            0 -1 20 1.0163078084588051e-02</internalNodes>
          <leafValues>
            7.1159601211547852e-01 -6.9713091850280762e-01</leafValues></_></weakClassifiers></_>
    <!-- stage 2 -->
    <_>
      <maxWeakCount>14</maxWeakCount>
      <stageThreshold>3.0862867832183838e-01</stageThreshold>
      <weakClassifiers>
        <_>
          <internalNodes>
            0 -1 14 1.2485279701650143e-02</internalNodes>
          <leafValues>
            4.9473685026168823e-01 -7.3469388484954834e-01</leafValues></_>
        <_>
          <internalNodes>
            0 -1 22 5.4671756923198700e-02</internalNodes>
          <leafValues>
            -6.6750973463058472e-01 4.8181730508804321e-01</leafValues></_>
        <_>
          <internalNodes>
            0 -1 10 1.8237125128507614e-02</internalNodes>
          <leafValues>
            -8.0913615226745605e-01 4.3472969532012939e-01</leafValues></_>
        <_>
          <internalNodes>
            0 -1 15 2.3787874728441238e-02</internalNodes>
          <leafValues>
            -6.0589712858200073e-01 5.0499558448791504e-01</leafValues></_>
        <_>
          <internalNodes>
            0 -1 23 7.9019770026206970e-02</internalNodes>
          <leafValues>
            -5.3541660308837891e-01 5.4548794031143188e-01</leafValues></_>
        <_>
          <internalNodes>
            0 -1 0 4.4332690536975861e-02</internalNodes>
          <leafValues>
            -8.2054805755615234e-01 3.8963079452514648e-01</leafValues></_>
        <_>
          <internalNodes>
            0 -1 1 1.8028190359473228e-02</internalNodes>
          <leafValues>
            -6.5177345275878906e-01 4.6619257330894470e-01</leafValues></_>
        <_>
          <internalNodes>
            0 -1 17 1.0330786928534508e-02</internalNodes>
          <leafValues>
            3.3392420411109924e-01 -7.5935661792755127e-01</leafValues></_>
        <_>
          <internalNodes>
            0 -1 7 4.3653845787048340e-02</internalNodes>
          <leafValues>
            -4.3620353937149048e-01 7.0823264122009277e-01</leafValues></_>
        <_>
          <internalNodes>
            0 -1 8 2.9439236968755722e-02</internalNodes>
          <leafValues>
            3.5764747858047485e-01 -7.2139012813568115e-01</leafValues></_>
        <_>
          <internalNodes>
            0 -1 11 1.4701825566589832e-02</internalNodes>
          <leafValues>
            4.7248840332031250e-01 -6.2117576599121094e-01</leafValues></_>
        <_>
          <internalNodes>
            0 -1 2 5.0983848050236702e-03</internalNodes>
          <leafValues>
            -9.6048796176910400e-01 2.4956430494785309e-01</leafValues></_>
        <_>
          <internalNodes>
            0 -1 3 1.5007246285676956e-02</internalNodes>
          <leafValues>
            1.9570963084697723e-01 -8.5350584983825684e-01</leafValues></_>
        <_>
          <internalNodes>
            0 -1 5 8.0630229786038399e-03</internalNodes>
          <leafValues>
            -6.5981537103652954e-01 3.6986106634140015e-01</leafValues></_></weakClassifiers></_></stages>
  <features>
    <_>
      <rect>
        4 0 8 8 29</rect></_>
    <_>
      <rect>
        12 4 8 8 33</rect></_>
    <_>
      <rect>
        12 16 8 8 23</rect></_>
    <_>
      <rect>
        20 4 8 8 6</rect></_>
    <_>
      <rect>
        20 4 8 8 27</rect></_>
    <_>
      <rect>
        24 0 8 8 26</rect></_>
    <_>
      <rect>
        24 4 8 8 27</rect></_>
    <_>
      <rect>
        32 12 8 8 0</rect></_>
    <_>
      <rect>
        32 16 8 8 31</rect></_>
    <_>
      <rect>
        36 0 8 8 23</rect></_>
    <_>
      <rect>
        36 12 8 8 20</rect></_>
    <_>
      <rect>
        40 0 8 8 12</rect></_>
    <_>
      <rect>
        4 0 8 16 11</rect></_>
    <_>
      <rect>
        40 0 8 16 5</rect></_>
    <_>
      <rect>
        0 8 16 8 4</rect></_>
    <_>
      <rect>
        0 12 16 8 16</rect></_>
    <_>
      <rect>
        0 16 16 8 14</rect></_>
    <_>
      <rect>
        4 16 16 8 34</rect></_>
    <_>
      <rect>
        16 0 16 8 8</rect></_>
    <_>
      <rect>
        20 16 16 8 18</rect></_>
    <_>
      <rect>
        24 8 16 8 12</rect></_>
    <_>
      <rect>
        24 16 16 8 3</rect></_>
    <_>
      <rect>
        0 0 16 16 12</rect></_>
    <_>
      <rect>
        24 0 16 16 4</rect></_></features></cascade>
</opencv_storage>
